tree
version=v2
num_class=1
num_tree_per_iteration=1
label_index=0
max_feature_idx=7
objective=regression
feature_names=Column_0 Column_1 Column_2 Column_3 Column_4 Column_5 Column_6 Column_7
feature_infos=[0:15] [0:199] [0:122] [0:99] [0:680] [0:67.099999999999994] [0.078:2.4199999999999999] [21:81]
tree_sizes=1514 1556 1627 1633 1631 1563 1639 1492 1552 1564 1708 1635 1561 1566 1488 1566 1562 1645 1491 1654

Tree=0
num_leaves=19
num_cat=0
split_feature=5 7 5 6 0 4 4 3 0 2 3 6 7 0 4 6 6 2
split_gain=12.0555 7.30541 3.10933 3.09643 1.5475 1.06599 3.89909 1.06909 0.813211 0.777778 0.702671 0.458009 0.361459 0.259259 0.212095 0.175 0.0346154 0.0256098
threshold=26.850000000000005 28.500000000000004 41.650000000000006 0.20800000000000002 2.5000000000000004 126.50000000000001 17.000000000000004 33.500000000000007 1.0000000180025095e-35 74.500000000000014 27.500000000000004 0.17650000000000002 26.500000000000004 6.5000000000000009 17.000000000000004 0.45400000000000001 0.47150000000000009 63.000000000000007
decision_type=2 2 2 2 2 2 2 2 2 2 2 2 2 2 2 2 2 2
left_child=12 2 4 11 8 6 9 -7 -2 -5 -6 -3 16 -11 -10 -14 -1 -16
right_child=1 3 -4 5 10 7 -8 -9 14 13 -12 -13 15 -15 17 -17 -18 -19
leaf_value=0.32646579870571918 0.33979913203905249 0.34692034416026463 0.35503722727714776 0.3653546875946081 0.3383705606104811 0.35646579870571915 0.33853476422296058 0.37046579870571916 0.33396579870571919 0.35239172463164509 0.3514657987057192 0.33646579870571919 0.33479913203905254 0.3597991320390525 0.32896579870571918 0.32896579870571918 0.32896579870571918 0.32646579870571918
leaf_count=45 30 22 28 36 21 30 29 25 20 27 20 20 36 21 20 20 20 21
internal_value=0 0.0860815 -0.0748982 0.208733 -0.139103 0.269447 0.213874 0.383625 -0.21178 0.323018 0.0222055 -0.0341244 -0.277532 0.239685 -0.278074 -0.218648 -0.328264 -0.319258
internal_count=491 370 160 210 132 168 113 55 91 84 41 42 121 48 61 56 65 41
shrinkage=1


Tree=1
num_leaves=19
num_cat=0
split_feature=1 5 5 7 1 6 6 5 1 0 1 4 5 4 6 7 7 6
split_gain=18.2393 6.13127 3.88809 4.10185 2.82188 2.22681 1.79415 1.98851 1.24878 1.0206 0.809675 0.681361 0.264179 0.40743 0.0399132 0.0283968 0.000822682 1.14896e-05
threshold=127.50000000000001 30.050000000000004 26.300000000000001 27.500000000000004 99.500000000000014 0.25350000000000006 0.43350000000000005 35.45000000000001 118.50000000000001 2.5000000000000004 145.50000000000003 165.50000000000003 33.250000000000007 74.500000000000014 0.63400000000000012 36.500000000000007 26.500000000000004 0.30650000000000005
decision_type=2 2 2 2 2 2 2 2 2 2 2 2 2 2 2 2 2 2
left_child=2 10 14 9 -5 -6 7 -3 -7 12 -2 15 -4 -14 16 -8 17 -1
right_child=1 6 3 4 5 8 11 -9 -10 -11 -12 -13 13 -15 -16 -17 -18 -19
leaf_value=-0.016323289275169375 -0.0089702427387237556 0.0047454828603400133 -0.01663456462761935 -0.0080817009665464096 -0.0042347979286442633 0.020789936040678331 0.029794130250811582 0.021737727026144665 0.004764803573489189 -0.0019002132690869847 0.0043473136566934134 0.017159031257033348 -0.0060137660607047713 -0.014995058785591805 -0.013948290571570397 0.027129697948694232 -0.016695085282509143 -0.016373289823532106
leaf_count=27 25 36 34 38 23 31 20 33 20 26 21 20 23 28 20 20 26 20
internal_value=0 0.255643 -0.146779 -0.0751462 0.0598713 0.173617 0.367417 0.257444 0.290111 -0.21138 -0.0578098 0.493886 -0.264413 -0.218893 -0.318545 0.569238 -0.329388 -0.326891
internal_count=491 175 316 223 112 74 129 69 51 111 46 60 85 51 93 40 73 47
shrinkage=0.05


Tree=2
num_leaves=20
num_cat=0
split_feature=1 5 5 7 6 6 4 6 5 4 1 5 7 5 2 4 6 7 6
split_gain=16.461 5.53347 3.509 3.70192 2.54761 1.63581 1.60461 1.93656 1.04666 1.03822 0.730731 0.486351 0.5867 0.331832 0.144854 0.100092 0.0360216 0.000742467 1.03689e-05
threshold=127.50000000000001 30.050000000000004 26.300000000000001 27.500000000000004 0.55000000000000016 0.29950000000000004 17.000000000000004 0.24450000000000002 34.750000000000007 193.50000000000003 145.50000000000003 30.950000000000003 24.500000000000004 33.750000000000007 79.000000000000014 86.500000000000014 0.63400000000000012 26.500000000000004 0.30650000000000005
decision_type=2 2 2 2 2 2 2 2 2 2 2 2 2 2 2 2 2 2 2
left_child=2 10 16 11 6 8 7 -5 -3 13 -2 -4 15 -7 -15 -13 17 18 -1
right_child=1 5 3 4 -6 9 -8 -9 -10 -11 -12 12 -14 14 -16 -17 -18 -19 -20
leaf_value=-0.015507125854492189 -0.0085217305421829218 0.0014556064492180236 -0.014721117108254821 -0.0078693783418698742 0.014265703760525762 0.018954440727829935 -0.011718124364103591 0.01195410889174257 0.01724183956782023 0.011367186307907104 0.0041299478638739812 -0.0090263449400663377 -0.002599778212606907 0.029033033715354074 0.023418840169906616 -0.013913631845604291 -0.01325087606906891 -0.015860330943877881 -0.015554625391960146
leaf_count=27 25 21 37 22 34 20 28 28 21 20 21 20 32 27 20 22 20 26 20
internal_value=0 0.242861 -0.13944 -0.0713889 0.0568777 0.349046 -0.0426971 0.0646355 0.186974 0.427288 -0.0549193 -0.200811 -0.154005 0.486972 0.53288 -0.231727 -0.302617 -0.312919 -0.310547
internal_count=491 175 316 223 112 129 78 50 42 87 46 111 74 67 47 42 93 73 47
shrinkage=0.05


Tree=3
num_leaves=20
num_cat=0
split_feature=1 5 1 7 6 5 6 1 5 1 6 1 0 3 7 7 3 5 7
split_gain=14.856 4.99396 3.30285 2.66016 1.4896 1.68182 1.27874 0.91448 0.683193 0.659485 0.643207 0.426579 0.340672 0.226226 0.524422 0.160339 0.105903 0.0107824 0.000576395
threshold=127.50000000000001 30.050000000000004 101.50000000000001 27.500000000000004 0.43350000000000005 35.45000000000001 0.25350000000000006 119.50000000000001 31.250000000000004 145.50000000000003 0.66050000000000009 113.50000000000001 6.5000000000000009 24.500000000000004 25.500000000000004 35.500000000000007 16.500000000000004 29.950000000000003 25.500000000000004
decision_type=2 2 2 2 2 2 2 2 2 2 2 2 2 2 2 2 2 2 2
left_child=2 9 10 8 5 -3 -5 15 16 -2 13 -10 -6 17 -15 -8 -4 18 -1
right_child=1 4 3 6 12 -7 7 -9 11 -11 -12 -13 -14 14 -16 -17 -18 -19 -20
leaf_value=-0.014837637295325598 -0.0080956437587738038 0.004095621200071441 -0.010089521482586862 -0.0049438050160041224 0.019474805891513826 0.019722650448481243 0.0095307779312133797 -0.00039805918931961064 0.0015711390227079393 0.0039234505522818793 -0.0049294762886487528 -0.0087557518482208243 0.027293082394383175 -0.015632500306323724 -0.005232935737479817 0.015862036868929865 -0.01511668156493794 -0.016344515085220338 -0.015170330068339472
leaf_count=30 25 36 20 26 38 33 20 20 20 21 26 20 22 27 22 20 22 20 23
internal_value=0 0.230718 -0.132468 -0.0365111 0.331594 0.231388 0.0863619 0.166632 -0.165378 -0.0521733 -0.241393 -0.0718461 0.44683 -0.271826 -0.219266 0.253928 -0.254456 -0.307106 -0.29964
internal_count=491 175 316 168 129 69 86 60 82 46 148 40 60 122 49 40 42 73 53
shrinkage=0.05


Tree=4
num_leaves=20
num_cat=0
split_feature=1 5 5 7 1 6 5 6 4 5 1 3 3 5 5 6 7 7 5
split_gain=13.4076 4.50705 3.01239 3.09165 2.30703 1.78111 1.47946 1.36744 0.935135 0.862127 0.595185 0.42365 0.734979 0.275705 0.256753 0.136267 0.0266368 0.00281039 0.00119579
threshold=127.50000000000001 30.050000000000004 26.300000000000001 27.500000000000004 99.500000000000014 0.55000000000000016 34.95000000000001 0.29950000000000004 193.50000000000003 34.750000000000007 145.50000000000003 29.500000000000004 10.500000000000002 33.750000000000007 36.150000000000013 0.64250000000000018 23.500000000000004 29.500000000000004 30.150000000000002
decision_type=2 2 2 2 2 2 2 2 2 2 2 2 2 2 2 2 2 2 2
left_child=2 10 16 11 -5 6 -6 9 13 -3 -2 12 -4 -9 -13 -15 -1 -18 -14
right_child=1 7 3 4 5 -7 -8 8 -10 -11 -12 14 18 15 -16 -17 17 -19 -20
leaf_value=-0.012833718092818009 -0.0076908618211746216 0.0011780451451029097 -0.0033860195428133013 -0.0072928089844553103 0.010372676168169295 0.019414675041385318 -0.0067418198870575945 0.017242834568023682 0.009839603751897812 0.015505236742042362 0.0037272775457018897 -0.00099394574761390675 -0.014497550868469737 0.026671564005888427 -0.0088215029375119641 0.021256328267710553 -0.014191137033480187 -0.01490608352635588 -0.01499248227247825
leaf_count=38 25 21 20 38 28 23 23 20 20 21 21 20 23 26 22 21 27 28 26
internal_value=0 0.219182 -0.125845 -0.0627925 0.0544257 0.157273 0.0530875 0.315014 0.38655 0.166833 -0.0495647 -0.181067 -0.229266 0.443194 -0.101882 0.48504 -0.277035 -0.291102 -0.295203
internal_count=491 175 316 223 112 74 51 129 87 42 46 111 69 67 42 47 93 55 49
shrinkage=0.05


Tree=5
num_leaves=19
num_cat=0
split_feature=1 1 5 7 4 4 2 5 5 3 1 2 0 1 5 5 3 5
split_gain=11.5416 3.19537 2.79183 2.27535 2.18573 1.30223 1.19728 1.53411 0.815778 0.625355 0.554503 0.503259 0.442361 0.326539 0.270607 0.0536503 0.00677263 0.00173717
threshold=127.50000000000001 154.50000000000003 40.850000000000001 28.500000000000004 125.50000000000001 17.000000000000004 77.000000000000014 29.550000000000004 30.150000000000002 29.500000000000004 114.50000000000001 65.500000000000014 6.5000000000000009 171.50000000000003 33.150000000000013 23.050000000000004 10.500000000000002 27.750000000000004
decision_type=2 2 2 2 2 2 2 2 2 2 2 2 2 2 2 2 2 2
left_child=3 2 8 9 5 6 7 -5 -2 10 15 -11 13 -3 -10 -1 -17 -18
right_child=1 12 -4 4 -6 -7 -8 -9 14 11 -12 -13 -14 -15 -16 16 17 -19
leaf_value=-0.011490070304045311 -0.0068455039523541931 0.0097056799314238825 0.020223351940512658 -0.0067822222005237236 0.013514338955283166 -0.012951643159613014 -0.0097839482701741736 0.010481862387349529 0.0078831323236227043 9.3503635038029068e-05 -0.0044507919996976857 -0.010012052421058928 0.022188859846856861 0.017982439123667204 0.00037470057606697082 -0.014860656360785165 -0.013539983280773821 -0.014056832363476624
leaf_count=26 32 22 20 22 20 32 26 31 20 22 20 28 27 26 30 21 29 37
internal_value=0 0.184687 0.0694734 -0.13463 -0.0340183 -0.088848 -0.0199124 0.0663128 -0.0122323 -0.206653 -0.242495 -0.111312 0.341378 0.283778 0.0675615 -0.26966 -0.281572 -0.276595
internal_count=491 177 102 314 131 111 79 53 82 183 133 50 75 48 50 113 87 66
shrinkage=0.05


Tree=6
num_leaves=20
num_cat=0
split_feature=7 4 5 6 5 4 6 4 0 2 3 5 5 0 3 6 6 5 4
split_gain=5.70148 2.74167 2.35229 2.72039 1.82934 2.2508 1.67921 1.06986 1.02846 0.898649 0.833699 0.826693 0.361119 0.359822 0.493454 0.286316 0.190506 0.00830416 0.000391441
threshold=30.500000000000004 126.50000000000001 30.850000000000005 0.50100000000000011 27.750000000000004 17.000000000000004 0.33650000000000008 186.50000000000003 5.5000000000000009 60.500000000000007 13.500000000000002 35.550000000000004 39.20000000000001 1.5000000000000002 17.500000000000004 0.28350000000000003 0.26900000000000007 25.700000000000006 37.500000000000007
decision_type=2 2 2 2 2 2 2 2 2 2 2 2 2 2 2 2 2 2 2
left_child=2 4 13 9 -2 6 8 -3 -6 -4 -8 -5 16 17 15 -15 -11 18 -1
right_child=1 7 3 11 5 -7 10 -9 -10 12 -12 -13 -14 14 -16 -17 -18 -19 -20
leaf_value=-0.012809811035792033 -0.0084839758702686865 0.020842398951450986 0.0018610393459146672 0.015303328633308411 -0.0065170298245820135 -0.0073381466250265802 0.0088091609201260985 0.0073745223468747638 0.0081717836742217723 -0.0091862485522315619 0.021815923872319135 0.002536135166883469 -0.0045233964920043945 -0.0088223706185817721 -0.013340355621443856 -0.0003619290888309479 -0.015921132266521455 -0.014164743233810773 -0.013118890598416328
leaf_count=21 35 30 22 21 22 31 28 29 26 21 22 32 21 20 27 20 21 22 20
internal_value=0 0.0995883 -0.11684 -0.0259097 0.0330825 0.0880955 0.162387 0.284452 0.0287882 -0.136777 0.290643 0.151897 -0.197539 -0.213367 -0.162351 -0.091843 -0.251074 -0.267622 -0.259212
internal_count=491 223 268 138 164 129 98 59 48 85 50 53 63 130 67 40 42 63 41
shrinkage=0.05


Tree=7
num_leaves=18
num_cat=0
split_feature=1 1 6 6 0 7 1 2 7 6 6 6 3 2 0 7 4
split_gain=9.97635 2.97459 1.81314 1.57153 1.63917 0.666811 0.734524 0.659926 1.45745 0.581082 0.580759 0.479319 0.467007 0.347788 0.00999267 0.00169002 0.00101783
threshold=154.50000000000003 114.50000000000001 0.52800000000000014 0.66050000000000009 2.5000000000000004 30.500000000000004 94.500000000000014 67.000000000000014 41.500000000000007 0.34250000000000008 0.31700000000000006 0.69250000000000012 31.500000000000004 77.000000000000014 2.5000000000000004 24.500000000000004 65.500000000000014
decision_type=2 2 2 2 2 2 2 2 2 2 2 2 2 2 2 2 2
left_child=1 3 7 5 -5 12 -7 -3 10 -2 -9 -4 14 -11 15 16 -1
right_child=9 2 11 4 -6 6 -8 8 -10 13 -12 -13 -14 -15 -16 -17 -18
leaf_value=-0.012243257668511622 0.01066125996651188 0.0032117255908601428 0.013402296602725983 -0.0078189061156341017 0.010195694215919662 -0.011495602068801722 0.0001555209198305684 -0.013541694993481918 0.0055204776966053509 0.023656666527191797 -0.0032543846446534859 0.0043375819495746065 -0.0055659580009954947 0.014729101583361626 -0.013670589654676378 -0.012920403320874489 -0.012700328763042177
leaf_count=29 31 34 25 28 23 24 31 34 23 24 23 35 27 20 31 28 21
internal_value=0 -0.0781408 0.0215832 -0.149843 0.00610651 -0.191484 -0.0985721 -0.0524735 -0.102074 0.318091 -0.187814 0.162291 -0.229059 0.391974 -0.258224 -0.252188 -0.248705
internal_count=491 416 174 242 51 191 55 114 80 75 57 60 136 44 109 78 50
shrinkage=0.05


Tree=8
num_leaves=19
num_cat=0
split_feature=1 1 5 6 0 6 4 1 6 1 6 5 1 2 2 5 2 2
split_gain=9.04055 2.48536 2.46337 1.81757 1.2703 1.21873 0.614515 1.05602 0.619399 0.62949 0.524427 0.524215 0.441177 0.313879 0.193337 0.0905304 0.0891999 0.0642021
threshold=127.50000000000001 154.50000000000003 40.850000000000001 0.63400000000000012 2.5000000000000004 0.442 1.0000000180025095e-35 114.50000000000001 0.25350000000000006 96.500000000000014 0.34250000000000008 30.950000000000003 142.50000000000003 77.000000000000014 77.000000000000014 33.750000000000007 67.000000000000014 65.500000000000014
decision_type=2 2 2 2 2 2 2 2 2 2 2 2 2 2 2 2 2 2
left_child=3 2 5 6 11 12 7 8 16 -10 -3 -5 -2 -12 15 17 -1 -8
right_child=1 10 -4 4 -6 -7 14 -9 9 -11 13 -13 -14 -15 -16 -17 -18 -19
leaf_value=-0.0098023129254579539 -0.010147639391598878 0.010128197218141248 0.018852819800376893 -0.010792022269396555 0.007596828540166219 0.0063455185294151312 -0.0091285932423739603 0.0026622914548577936 -0.0091124719843782235 0.0022543913196949733 0.022473833151161672 0.00051874607801437377 -0.00034983716905117039 0.013992646783590319 -0.0070385649227179027 -0.01411931932933869 -0.014207905144603164 -0.012586176127195359
leaf_count=20 27 31 20 21 36 35 29 29 29 21 24 20 20 20 26 31 27 25
internal_value=0 0.163996 0.0623856 -0.118613 0.0148645 -0.0143634 -0.16198 -0.114186 -0.164243 -0.0867678 0.302186 -0.105491 -0.119567 0.372375 -0.216232 -0.239314 -0.246664 -0.214587
internal_count=491 177 102 314 77 82 237 126 97 50 75 41 47 44 111 85 47 54
shrinkage=0.05


Tree=9
num_leaves=19
num_cat=0
split_feature=5 7 6 6 6 4 4 4 3 3 3 6 6 4 7 5 6 3
split_gain=4.50752 3.06239 2.86292 0.915291 0.89134 0.79074 1.92392 0.955884 0.917078 0.765566 1.3719 0.724262 0.460246 0.275858 0.192916 0.190396 0.0706427 0.00482035
threshold=26.850000000000005 28.500000000000004 0.31350000000000006 0.26050000000000006 0.23900000000000002 126.50000000000001 17.000000000000004 186.50000000000003 11.500000000000002 9.0000000000000018 28.500000000000004 0.64950000000000008 0.20350000000000004 90.500000000000014 31.500000000000004 37.000000000000007 0.43050000000000005 9.0000000000000018
decision_type=2 2 2 2 2 2 2 2 2 2 2 2 2 2 2 2 2 2
left_child=14 4 3 12 -2 6 8 -7 -4 -6 13 15 -3 -11 16 -12 17 -1
right_child=1 2 5 -5 9 7 -8 -9 -10 10 11 -13 -14 -15 -16 -17 -18 -19
leaf_value=-0.012168528512120247 -0.010527939042624307 -0.0019161195709155158 0.0073778973782763768 -0.010593453273177149 0.007565408796072007 0.023330660909414293 -0.0042815780888001125 0.0089017141610383994 0.02030518165101176 -0.0128011928388366 0.0013642329350113868 0.0093814530188129075 0.0064860399280275626 -0.0050536279752850539 -0.0061593082966282971 -0.005534975975751877 -0.0084419246142109234 -0.011258213154294275
leaf_count=26 34 39 34 20 20 22 24 24 23 27 20 21 28 20 32 20 24 33
internal_value=0 0.0370897 0.115611 -0.0241353 -0.0666359 0.211343 0.151879 0.31605 0.251883 -0.0284064 -0.0616869 0.0372445 0.0319046 -0.190087 -0.189149 -0.0417074 -0.21458 -0.233187
internal_count=491 376 214 87 162 127 81 46 57 128 108 61 67 47 115 40 83 59
shrinkage=0.05


Tree=10
num_leaves=21
num_cat=0
split_feature=1 5 6 1 0 5 6 3 1 4 5 5 6 5 2 2 6 0 3 5
split_gain=9.82801 3.59338 1.82588 1.50741 1.44431 1.04676 0.866418 0.634384 0.54633 0.803651 1.68101 2.64789 0.632806 0.29817 0.261784 0.199298 0.0930119 0.109837 0.15297 0.004922
threshold=130.50000000000003 29.950000000000003 0.65450000000000019 165.50000000000003 2.5000000000000004 39.45000000000001 0.43050000000000005 27.500000000000004 101.50000000000001 66.500000000000014 34.050000000000004 29.650000000000002 0.22050000000000003 33.850000000000001 73.000000000000014 71.000000000000014 0.42250000000000004 2.5000000000000004 19.500000000000004 27.650000000000002
decision_type=2 2 2 2 2 2 2 2 2 2 2 2 2 2 2 2 2 2 2 2
left_child=2 14 5 6 7 8 13 -4 16 10 11 12 -10 -3 -2 -11 17 19 -19 -1
right_child=1 3 4 -5 -6 -7 -8 -9 9 15 -12 -13 -14 -15 -16 -17 -18 18 -20 -21
leaf_value=-0.010642324489626018 0.0014462171565918695 0.0018939526243643328 -0.010356615148484708 0.022933953098560635 0.010318813785429926 0.0036225396801124916 0.016481495151917141 0.0022368786484003068 -0.012205410525202751 -0.0076301104672577072 -0.014770097959609258 0.016008795549472175 0.00037240225821733475 0.010329245924949645 -0.0065467633306980138 -0.014286715605042197 -0.012620434837956582 -0.010616849437355996 -0.0044327970594167715 -0.011712498146863211
leaf_count=22 21 22 20 38 31 22 36 20 20 23 21 21 20 20 20 22 31 20 20 21
internal_value=0 0.205415 -0.0979391 0.295358 0.044363 -0.136355 0.215791 -0.0811974 -0.155416 -0.110307 -0.0513774 0.032631 -0.11833 0.118215 -0.049056 -0.217689 -0.20567 -0.188214 -0.150496 -0.223299
internal_count=491 157 334 116 71 263 78 40 241 127 82 61 40 42 41 45 114 83 40 43
shrinkage=0.05


Tree=11
num_leaves=20
num_cat=0
split_feature=1 5 5 1 7 1 5 5 3 4 1 0 3 5 2 5 7 7 7
split_gain=8.86978 3.24303 1.71751 1.7535 1.4041 1.36044 0.904781 0.648299 0.573882 0.544453 0.49428 0.372325 0.449814 0.245839 0.23626 0.210943 0.0629253 0.0520273 0.0213907
threshold=130.50000000000003 29.950000000000003 26.300000000000001 101.50000000000001 27.500000000000004 165.50000000000003 34.050000000000004 37.45000000000001 28.500000000000004 121.00000000000001 144.50000000000003 2.5000000000000004 24.500000000000004 29.950000000000003 73.000000000000014 33.250000000000007 23.500000000000004 29.500000000000004 22.500000000000004
decision_type=2 2 2 2 2 2 2 2 2 2 2 2 2 2 2 2 2 2 2
left_child=2 14 17 11 9 8 13 -8 10 15 -3 16 -13 -6 -2 -5 -4 18 -1
right_child=1 5 3 4 6 -7 7 -9 -10 -11 -12 12 -14 -15 -16 -17 -18 -19 -20
leaf_value=-0.010647109104320408 0.0013739060078348433 0.0090209907541672404 -0.0087966379264126648 -0.0050914628431200986 0.0062056654691696172 0.021787255649503911 -0.0062700342564355766 0.0061540110835007263 0.0052418641068718652 -0.0115641987323761 0.019524815110933215 -0.010141812300398238 -0.00053315519772726913 0.013785349998785102 -0.0062194253504276285 0.0021704820170998572 -0.012386931679569758 -0.0123446363689644 -0.0087886927028497062
leaf_count=32 21 24 23 20 20 38 21 21 33 20 21 21 29 23 20 20 26 28 30
internal_value=0 0.195145 -0.0930422 -0.0494907 0.0205567 0.28059 0.103233 -0.00116023 0.205002 -0.0965679 0.278456 -0.152085 -0.0913758 0.205198 -0.0466032 -0.0292098 -0.214034 -0.211115 -0.194958
internal_count=491 157 334 244 145 116 85 42 78 60 45 99 50 43 41 40 49 90 62
shrinkage=0.05


Tree=12
num_leaves=19
num_cat=0
split_feature=1 5 6 1 3 5 6 5 5 4 1 4 5 2 2 5 1 7
split_gain=8.00498 2.92683 1.6018 1.2278 1.18272 0.924125 0.781812 0.436939 0.849006 1.45737 1.99955 0.392759 0.275613 0.213225 0.107847 0.0892643 0.0157536 0.000622564
threshold=130.50000000000003 29.950000000000003 0.65450000000000019 165.50000000000003 27.500000000000004 39.45000000000001 0.43050000000000005 26.300000000000001 33.850000000000001 17.000000000000004 111.50000000000001 94.500000000000014 33.850000000000001 73.000000000000014 69.000000000000014 35.550000000000004 109.50000000000001 25.500000000000004
decision_type=2 2 2 2 2 2 2 2 2 2 2 2 2 2 2 2 2 2
left_child=2 13 5 6 -4 7 12 16 9 10 -9 15 -3 -2 -11 -10 17 -1
right_child=1 3 4 -5 -6 -7 -8 8 11 14 -12 -13 -14 -15 -16 -17 -18 -19
leaf_value=-0.0096570932817074562 0.0013052107322783699 0.001241221617568623 -0.0037690533815245876 0.020697892927809769 0.0091696805800452388 0.0035910844125530937 0.015144465035862392 -0.0043379582464694979 -0.015058701336383821 -0.0075128962472081192 0.015107339434325696 -0.0041611395031213765 0.0093511738628149037 -0.0059084536507725723 -0.012705358378589155 -0.010651520529279004 -0.011371022624813994 -0.010009685832829704
leaf_count=31 21 22 38 38 33 22 36 39 20 20 20 20 20 20 20 27 23 21
internal_value=0 0.185387 -0.0883901 0.266561 0.0448945 -0.124372 0.194752 -0.142282 -0.113661 -0.054828 0.0450734 -0.200593 0.102062 -0.044273 -0.202183 -0.250538 -0.205628 -0.19599
internal_count=491 157 334 116 71 263 78 241 166 99 59 67 42 41 40 47 75 52
shrinkage=0.05


Tree=13
num_leaves=19
num_cat=0
split_feature=1 5 6 1 3 5 6 5 5 4 1 4 6 2 2 5 1 1
split_gain=7.22449 2.64147 1.44563 1.10809 1.06741 0.834023 0.705585 0.394337 0.766228 1.31528 1.80459 0.354465 0.261419 0.192435 0.0973316 0.080561 0.0142176 0.000589208
threshold=130.50000000000003 29.950000000000003 0.65450000000000019 165.50000000000003 27.500000000000004 39.45000000000001 0.43050000000000005 26.300000000000001 33.850000000000001 17.000000000000004 111.50000000000001 94.500000000000014 0.25150000000000006 73.000000000000014 69.000000000000014 35.550000000000004 109.50000000000001 98.500000000000014
decision_type=2 2 2 2 2 2 2 2 2 2 2 2 2 2 2 2 2 2
left_child=2 13 5 6 -4 7 12 16 9 10 -9 15 -3 -2 -11 -10 17 -1
right_child=1 3 4 -5 -6 -7 -8 8 11 14 -12 -13 -14 -15 -16 -17 -18 -19
leaf_value=-0.0091764535987749699 0.0012399501034191676 0.0089851804077625275 -0.0035806003761918921 0.019662998185346003 0.0087111967531117527 0.003411530229178342 0.014387241750955583 -0.0041210602491329879 -0.01430576615035534 -0.0071372513100504886 0.014351972602307798 -0.0039530822262167937 0.0010868281803347848 -0.0056130314618349081 -0.012070090360939504 -0.010118944501435315 -0.010802471702513488 -0.0095224056392908107
leaf_count=32 21 20 38 38 33 22 36 39 20 20 20 20 22 20 20 27 23 20
internal_value=0 0.176118 -0.0839706 0.253232 0.0426498 -0.118153 0.185014 -0.135168 -0.107978 -0.0520866 0.0428197 -0.190564 0.096959 -0.0420594 -0.192073 -0.238011 -0.195347 -0.18619
internal_count=491 157 334 116 71 263 78 241 166 99 59 67 42 41 40 47 75 52
shrinkage=0.05


Tree=14
num_leaves=18
num_cat=0
split_feature=1 5 6 3 1 1 6 0 1 5 5 7 1 1 3 6 7
split_gain=6.5201 2.38392 1.32437 2.20056 1.00005 0.940603 0.636791 0.549789 0.367963 0.280823 0.245161 0.238909 0.224102 0.174449 0.159543 0.102208 0.023783
threshold=130.50000000000003 29.950000000000003 0.52800000000000014 29.500000000000004 165.50000000000003 112.50000000000001 0.43050000000000005 4.5000000000000009 99.500000000000014 34.050000000000004 33.850000000000001 29.500000000000004 113.50000000000001 146.50000000000003 29.500000000000004 0.6755000000000001 23.500000000000004
decision_type=2 2 2 2 2 2 2 2 2 2 2 2 2 2 2 2 2
left_child=2 13 7 5 6 15 10 11 -9 -10 -3 12 14 -2 16 -4 -1
right_child=1 4 3 -5 -6 -7 -8 8 9 -11 -12 -13 -14 -15 -16 -17 -18
leaf_value=-0.0078295870373646433 -0.0051806779844420295 0.00096326199444857511 -0.010978495228019629 0.01092825044478689 0.018679848274118022 0.0044714277237653732 0.0136678796261549 -0.0074170359809483805 0.0026358745992183688 -0.0047024524686011399 0.0086120690405368811 -0.0032763155798117317 -0.012412033302168694 0.0013441824167966844 -0.0040873301327228545 -0.0062603222516675787 -0.0096599904554230832
leaf_count=36 21 22 22 35 38 20 36 28 32 22 20 24 31 20 25 24 35
internal_value=0 0.167312 -0.079772 0.0158698 0.240571 -0.09162 0.175763 -0.121231 -0.0553129 -0.00707628 0.092111 -0.157027 -0.174318 -0.0399564 -0.150448 -0.170337 -0.174638
internal_count=491 157 334 101 116 66 78 233 82 54 42 151 127 41 96 46 71
shrinkage=0.05


Tree=15
num_leaves=19
num_cat=0
split_feature=1 7 5 1 6 2 2 1 4 6 1 6 5 1 3 5 5 6
split_gain=6.47903 2.78599 2.0453 1.47949 1.34868 0.588302 0.573263 0.729651 0.55161 0.418859 0.549946 0.250147 0.219107 0.212926 0.176297 0.102946 0.102607 0.0215947
threshold=165.50000000000003 28.500000000000004 26.850000000000005 99.500000000000014 0.52800000000000014 53.000000000000007 83.000000000000014 124.50000000000001 141.00000000000003 0.31700000000000006 127.50000000000001 0.35000000000000003 33.400000000000006 116.50000000000001 27.500000000000004 26.050000000000004 37.000000000000007 0.19650000000000004
decision_type=2 2 2 2 2 2 2 2 2 2 2 2 2 2 2 2 2 2
left_child=1 5 11 -4 6 -1 7 -5 -2 13 12 -3 15 17 -6 -11 -14 -7
right_child=8 2 3 4 14 9 -8 -9 -10 10 -12 -13 16 -15 -16 -17 -18 -19
leaf_value=0.00011069162283092738 0.0116821203766198 -0.0044433105364441875 -0.0044908315325394655 0.010299740370475886 0.0096309780426647364 -0.0096402483371396865 -0.0042545493692159658 -0.00029651443473994733 0.021929654479026797 -0.0070039995301228305 0.0020144655590965638 -0.012351334244012833 -0.0016896090283989907 -0.014516603536903858 0.015492779941394412 -0.011545167863368989 -0.0066937013041405459 -0.0076561789959669118
leaf_count=32 29 20 39 33 23 24 22 32 24 26 21 20 20 20 29 24 21 32
internal_value=0 -0.0437364 0.0363826 0.0822993 0.130591 -0.123127 0.0544374 0.101662 0.32645 -0.144462 -0.105579 -0.167946 -0.139241 -0.201762 0.258001 -0.183675 -0.0850536 -0.17013
internal_count=491 438 218 178 139 220 87 65 53 188 112 40 91 76 52 50 41 56
shrinkage=0.05


Tree=16
num_leaves=19
num_cat=0
split_feature=1 7 5 1 0 0 4 2 4 4 3 5 5 7 7 3 3 1
split_gain=5.84732 2.51435 1.84588 1.35624 0.61366 0.717133 0.570163 0.530943 0.497828 0.34776 0.330266 0.530004 0.114707 0.111578 0.0942649 0.374509 0.0479916 0.0348971
threshold=165.50000000000003 28.500000000000004 26.850000000000005 94.500000000000014 1.5000000000000002 6.5000000000000009 109.00000000000001 53.000000000000007 141.00000000000003 17.000000000000004 29.500000000000004 35.45000000000001 32.350000000000001 38.500000000000007 23.500000000000004 13.500000000000002 11.500000000000002 100.50000000000001
decision_type=2 2 2 2 2 2 2 2 2 2 2 2 2 2 2 2 2 2
left_child=1 7 13 -4 -5 9 -7 -1 -2 12 14 -12 -6 -3 15 -9 -16 -17
right_child=8 2 3 4 5 6 -8 10 -10 -11 11 -13 -14 -15 16 17 -18 -19
leaf_value=0.00010515691246837378 0.011098014486247096 -0.010618217438459397 -0.0059836695420330968 0.013983983285725116 0.0071181172877550136 0.0050671737227174973 0.01559641592204571 -0.0013394398987293245 0.020833171531558038 -0.0024934234492706535 0.0019361057939628762 -0.0075075858105451629 0.0017630597203969957 -0.0053366953134536751 -0.011793273985385896 -0.0082728153467178361 -0.0087807438503473244 -0.01103761558021818
leaf_count=32 29 20 29 20 20 36 20 20 24 33 24 39 20 20 20 25 39 21
internal_value=0 -0.0415496 0.0345635 0.0781843 0.116694 0.0914244 0.176552 -0.116971 0.310128 0.0261207 -0.137239 -0.0781998 0.0888118 -0.159549 -0.166994 -0.14103 -0.196039 -0.1907
internal_count=491 438 218 178 149 129 56 220 53 73 188 63 40 40 125 66 59 46
shrinkage=0.05


Tree=17
num_leaves=20
num_cat=0
split_feature=1 7 5 1 0 2 0 5 2 1 4 2 3 1 5 3 4 1 2
split_gain=5.27721 2.2692 1.66591 1.22401 0.553828 0.660055 0.870153 0.486945 0.79616 0.449645 0.44929 0.186245 0.172893 0.101812 0.0961824 0.0729404 0.051748 0.0500769 0.00233471
threshold=165.50000000000003 28.500000000000004 26.850000000000005 94.500000000000014 1.5000000000000002 83.000000000000014 5.5000000000000009 30.950000000000003 64.500000000000014 122.50000000000001 141.00000000000003 79.000000000000014 31.500000000000004 115.50000000000001 32.750000000000007 29.500000000000004 80.000000000000014 105.50000000000001 60.500000000000007
decision_type=2 2 2 2 2 2 2 2 2 2 2 2 2 2 2 2 2 2 2
left_child=1 7 13 -4 -5 6 14 16 12 -8 -2 15 -9 -3 -6 -10 17 18 -1
right_child=10 2 3 4 5 -7 9 8 11 -11 -12 -13 -14 -15 -16 -17 -18 -19 -20
leaf_value=-0.0082648914158344276 0.0105431136899981 -0.010101135075092317 -0.0056844859030740014 0.013284784257411959 0.0033361268991773784 -0.0020164675049243437 0.01585265391546747 -0.00083778913725506172 -0.010820277258753778 0.0066873374395072464 0.019791513308882715 -0.0031837843954563142 0.0055854973569512377 -0.0050560321286320688 -0.0013946353324822017 -0.0066011634965737658 -0.0094939076506039694 -0.0049990273267030722 -0.0076243117451667789
leaf_count=25 29 20 29 20 22 31 23 22 20 32 24 25 20 20 21 21 34 20 33
internal_value=0 -0.0394721 0.0328353 0.0742751 0.110859 0.0868531 0.127084 -0.111122 -0.0632122 0.210402 0.294621 -0.131704 0.0444184 -0.151572 0.0205151 -0.173185 -0.157321 -0.14313 -0.158008
internal_count=491 438 218 178 149 129 98 220 108 55 53 66 42 40 43 41 112 78 58
shrinkage=0.05


Tree=18
num_leaves=18
num_cat=0
split_feature=1 7 1 6 7 7 7 2 4 6 1 7 6 2 1 4 6
split_gain=4.76268 2.04796 1.19177 1.00066 0.631521 1.65256 1.19119 0.469968 0.405484 0.363522 0.4805 0.239456 0.210195 0.346519 0.193979 0.14025 0.0206091
threshold=165.50000000000003 28.500000000000004 99.500000000000014 0.21450000000000002 41.500000000000007 47.500000000000007 33.500000000000007 53.000000000000007 141.00000000000003 0.31700000000000006 127.50000000000001 40.500000000000007 0.50100000000000011 69.000000000000014 116.50000000000001 17.000000000000004 0.19650000000000004
decision_type=2 2 2 2 2 2 2 2 2 2 2 2 2 2 2 2 2
left_child=1 7 11 -4 6 -6 -5 -1 -2 14 12 -3 -11 -14 16 -8 -9
right_child=8 2 3 4 5 -7 15 9 -10 10 -12 -13 13 -15 -16 -17 -18
leaf_value=0.00032309931702911854 0.01001595803375902 -0.0081868874973484457 -0.0038815768701689585 0.0096595267906333469 0.02032920135693117 0.0028411707494940077 -0.00010615441948175431 -0.0084987787219385318 0.018801937438547613 -0.0091052523430655979 0.0023968140993799484 -0.0013807604710261026 -0.00081325247883796698 -0.0087092753344525896 -0.013127671256661417 -0.005956601599852244 -0.0065605136682279413
leaf_count=32 29 28 35 33 22 35 20 24 24 34 21 24 33 24 20 21 32
internal_value=0 -0.0374985 0.0311936 0.072576 0.112708 0.191819 0.051771 -0.105566 0.27989 -0.124635 -0.0884117 -0.100912 -0.119877 -0.0827579 -0.178016 -0.0620545 -0.147824
internal_count=491 438 218 166 131 57 74 220 53 188 112 52 91 57 76 41 56
shrinkage=0.05


Tree=19
num_leaves=20
num_cat=0
split_feature=1 7 5 1 0 2 0 5 2 1 4 2 1 7 7 3 4 1 2
split_gain=4.29832 1.84828 1.45584 1.02148 0.481826 0.610086 0.749741 0.436087 0.689608 0.395518 0.365949 0.166694 0.161985 0.0934805 0.0911723 0.0670258 0.0473865 0.0481586 0.00356589
threshold=165.50000000000003 28.500000000000004 26.850000000000005 94.500000000000014 1.5000000000000002 83.000000000000014 5.5000000000000009 30.950000000000003 64.500000000000014 122.50000000000001 141.00000000000003 79.000000000000014 112.50000000000001 34.500000000000007 38.500000000000007 29.500000000000004 80.000000000000014 105.50000000000001 60.500000000000007
decision_type=2 2 2 2 2 2 2 2 2 2 2 2 2 2 2 2 2 2 2
left_child=1 7 14 -4 -5 6 13 16 12 -8 -2 15 -9 -6 -3 -10 17 18 -1
right_child=10 2 3 4 5 -7 9 8 11 -11 -12 -13 -14 -15 -16 -17 -18 -19 -20
leaf_value=-0.0077013497054576876 0.0095151601680393896 -0.0095248285308480261 -0.0051669379246645965 0.012310735546052456 -0.0015420585125684738 -0.0021435675121122791 0.014772257403187132 -0.00084410394941057492 -0.0099683659151196483 0.0061762691941112287 0.01786184050142765 -0.002716701537370682 0.0053662020535696119 0.0031319095388702722 -0.0047506182268261914 -0.0059239259433178683 -0.0087581206441802138 -0.0044056377187371249 -0.0069096853222810868
leaf_count=25 29 20 29 20 20 31 23 21 20 32 24 25 21 23 20 21 34 20 33
internal_value=0 -0.0356236 0.0296339 0.0683728 0.101793 0.0794023 0.118081 -0.100288 -0.0549487 0.195419 0.265896 -0.118693 0.045221 0.0191594 -0.142754 -0.157936 -0.144008 -0.130427 -0.145018
internal_count=491 438 218 178 149 129 98 220 108 55 53 66 42 43 40 41 112 78 58
shrinkage=0.05


end of trees

feature importances:
Column_5=76
Column_1=70
Column_6=58
Column_7=42
Column_4=37
Column_2=32
Column_3=30
Column_0=21

parameters:
[boosting: gbdt]
[objective: regression]
[metric: l1,l2]
[tree_learner: serial]
[device_type: cpu]
[data: ]
[valid: ]
[num_iterations: 100]
[learning_rate: 0.05]
[num_leaves: 31]
[num_threads: 0]
[max_depth: -1]
[min_data_in_leaf: 20]
[min_sum_hessian_in_leaf: 0.001]
[bagging_fraction: 0.8]
[bagging_freq: 5]
[bagging_seed: 3]
[feature_fraction: 0.9]
[feature_fraction_seed: 2]
[early_stopping_round: 0]
[max_delta_step: 0]
[lambda_l1: 0]
[lambda_l2: 0]
[min_gain_to_split: 0]
[drop_rate: 0.1]
[max_drop: 50]
[skip_drop: 0.5]
[xgboost_dart_mode: 0]
[uniform_drop: 0]
[drop_seed: 4]
[top_rate: 0.2]
[other_rate: 0.1]
[min_data_per_group: 100]
[max_cat_threshold: 32]
[cat_l2: 10]
[cat_smooth: 10]
[max_cat_to_onehot: 4]
[top_k: 20]
[monotone_constraints: ]
[feature_contri: ]
[forcedsplits_filename: ]
[refit_decay_rate: 0.9]
[verbosity: 0]
[max_bin: 255]
[min_data_in_bin: 3]
[bin_construct_sample_cnt: 200000]
[histogram_pool_size: -1]
[data_random_seed: 1]
[output_model: LightGBM_model.txt]
[snapshot_freq: -1]
[input_model: ]
[output_result: LightGBM_predict_result.txt]
[initscore_filename: ]
[valid_data_initscores: ]
[pre_partition: 0]
[enable_bundle: 1]
[max_conflict_rate: 0]
[is_enable_sparse: 1]
[sparse_threshold: 0.8]
[use_missing: 1]
[zero_as_missing: 0]
[two_round: 0]
[save_binary: 0]
[enable_load_from_binary_file: 1]
[header: 0]
[label_column: ]
[weight_column: ]
[group_column: ]
[ignore_column: ]
[categorical_feature: ]
[predict_raw_score: 0]
[predict_leaf_index: 0]
[predict_contrib: 0]
[num_iteration_predict: -1]
[pred_early_stop: 0]
[pred_early_stop_freq: 10]
[pred_early_stop_margin: 10]
[convert_model_language: ]
[convert_model: gbdt_prediction.cpp]
[num_class: 1]
[is_unbalance: 0]
[scale_pos_weight: 1]
[sigmoid: 1]
[boost_from_average: 1]
[reg_sqrt: 0]
[alpha: 0.9]
[fair_c: 1]
[poisson_max_delta_step: 0.7]
[tweedie_variance_power: 1.5]
[max_position: 20]
[label_gain: ]
[metric_freq: 1]
[is_provide_training_metric: 0]
[eval_at: ]
[num_machines: 1]
[local_listen_port: 12400]
[time_out: 120]
[machine_list_filename: ]
[machines: ]
[gpu_platform_id: -1]
[gpu_device_id: -1]
[gpu_use_dp: 0]

end of parameters

pandas_categorical:null
